<?xml version="1.0"?>
<opencv_storage>
<cascade>
  <stageType>BOOST</stageType>
  <featureType>HAAR</featureType>
  <height>24</height>
  <width>24</width>
  <stageParams>
    <boostType>GAB</boostType>
    <minHitRate>8.9999997615814209e-01</minHitRate>
    <maxFalseAlarm>5.0000000000000000e-01</maxFalseAlarm>
    <weightTrimRate>9.4999999999999996e-01</weightTrimRate>
    <maxDepth>1</maxDepth>
    <maxWeakCount>100</maxWeakCount></stageParams>
  <featureParams>
    <maxCatCount>0</maxCatCount>
    <featSize>1</featSize>
    <mode>BASIC</mode></featureParams>
  <stageNum>6</stageNum>
  <stages>
    <!-- stage 0 -->
    <_>
      <maxWeakCount>2</maxWeakCount>
      <stageThreshold>-3.5170134902000427e-01</stageThreshold>
      <weakClassifiers>
        <_>
          <internalNodes>
            0 -1 4 1.4512696361634880e-04</internalNodes>
          <leafValues>
            -9.5988535881042480e-01 9.4029849767684937e-01</leafValues></_>
        <_>
          <internalNodes>
            0 -1 3 -3.3422913402318954e-02</internalNodes>
          <leafValues>
            6.0818403959274292e-01 -9.5499563217163086e-01</leafValues></_></weakClassifiers></_>
    <!-- stage 1 -->
    <_>
      <maxWeakCount>1</maxWeakCount>
      <stageThreshold>4.3307086825370789e-01</stageThreshold>
      <weakClassifiers>
        <_>
          <internalNodes>
            0 -1 5 -1.0885135270655155e-02</internalNodes>
          <leafValues>
            -9.8931753635406494e-01 4.3307086825370789e-01</leafValues></_></weakClassifiers></_>
    <!-- stage 2 -->
    <_>
      <maxWeakCount>2</maxWeakCount>
      <stageThreshold>-8.3093994855880737e-01</stageThreshold>
      <weakClassifiers>
        <_>
          <internalNodes>
            0 -1 1 -5.2022375166416168e-03</internalNodes>
          <leafValues>
            1.9178082048892975e-01 -9.8439377546310425e-01</leafValues></_>
        <_>
          <internalNodes>
            0 -1 7 -1.3379752635955811e-03</internalNodes>
          <leafValues>
            1.5345379710197449e-01 -9.7877758741378784e-01</leafValues></_></weakClassifiers></_>
    <!-- stage 3 -->
    <_>
      <maxWeakCount>2</maxWeakCount>
      <stageThreshold>-8.1653976440429688e-01</stageThreshold>
      <weakClassifiers>
        <_>
          <internalNodes>
            0 -1 6 -2.2114021703600883e-03</internalNodes>
          <leafValues>
            -9.6385538578033447e-02 -9.6962332725524902e-01</leafValues></_>
        <_>
          <internalNodes>
            0 -1 2 9.9355087149888277e-04</internalNodes>
          <leafValues>
            -9.7513097524642944e-01 1.5308354794979095e-01</leafValues></_></weakClassifiers></_>
    <!-- stage 4 -->
    <_>
      <maxWeakCount>3</maxWeakCount>
      <stageThreshold>-1.4242266416549683e+00</stageThreshold>
      <weakClassifiers>
        <_>
          <internalNodes>
            0 -1 9 1.9316030666232109e-02</internalNodes>
          <leafValues>
            -9.2671930789947510e-01 8.4210526943206787e-01</leafValues></_>
        <_>
          <internalNodes>
            0 -1 6 -1.4824292156845331e-03</internalNodes>
          <leafValues>
            4.4497260451316833e-01 -9.1489952802658081e-01</leafValues></_>
        <_>
          <internalNodes>
            0 -1 8 5.7706017978489399e-03</internalNodes>
          <leafValues>
            -9.8624420166015625e-01 4.1739213466644287e-01</leafValues></_></weakClassifiers></_>
    <!-- stage 5 -->
    <_>
      <maxWeakCount>2</maxWeakCount>
      <stageThreshold>-9.3654513359069824e-01</stageThreshold>
      <weakClassifiers>
        <_>
          <internalNodes>
            0 -1 6 -2.3577916435897350e-03</internalNodes>
          <leafValues>
            1.3636364042758942e-01 -9.7023808956146240e-01</leafValues></_>
        <_>
          <internalNodes>
            0 -1 0 -9.3836896121501923e-03</internalNodes>
          <leafValues>
            3.3692948520183563e-02 -9.4450896978378296e-01</leafValues></_></weakClassifiers></_></stages>
  <features>
    <_>
      <rects>
        <_>
          0 0 4 4 -1.</_>
        <_>
          0 2 4 2 2.</_></rects>
      <tilted>0</tilted></_>
    <_>
      <rects>
        <_>
          0 4 2 6 -1.</_>
        <_>
          1 4 1 6 2.</_></rects>
      <tilted>0</tilted></_>
    <_>
      <rects>
        <_>
          1 8 1 4 -1.</_>
        <_>
          1 10 1 2 2.</_></rects>
      <tilted>0</tilted></_>
    <_>
      <rects>
        <_>
          2 1 8 8 -1.</_>
        <_>
          2 1 4 4 2.</_>
        <_>
          6 5 4 4 2.</_></rects>
      <tilted>0</tilted></_>
    <_>
      <rects>
        <_>
          2 2 1 9 -1.</_>
        <_>
          2 5 1 3 2.</_></rects>
      <tilted>0</tilted></_>
    <_>
      <rects>
        <_>
          2 9 6 2 -1.</_>
        <_>
          4 9 2 2 2.</_></rects>
      <tilted>0</tilted></_>
    <_>
      <rects>
        <_>
          3 1 1 2 -1.</_>
        <_>
          3 2 1 1 2.</_></rects>
      <tilted>0</tilted></_>
    <_>
      <rects>
        <_>
          9 10 1 6 -1.</_>
        <_>
          9 13 1 3 2.</_></rects>
      <tilted>0</tilted></_>
    <_>
      <rects>
        <_>
          10 16 4 8 -1.</_>
        <_>
          12 16 2 8 2.</_></rects>
      <tilted>0</tilted></_>
    <_>
      <rects>
        <_>
          15 17 8 1 -1.</_>
        <_>
          19 17 4 1 2.</_></rects>
      <tilted>0</tilted></_></features></cascade>
</opencv_storage>
