<?xml version="1.0"?>
<opencv_storage>
<cascade>
  <stageType>BOOST</stageType>
  <featureType>HAAR</featureType>
  <height>24</height>
  <width>24</width>
  <stageParams>
    <boostType>GAB</boostType>
    <minHitRate>9.7500002384185791e-01</minHitRate>
    <maxFalseAlarm>5.0000000000000000e-01</maxFalseAlarm>
    <weightTrimRate>9.4999999999999996e-01</weightTrimRate>
    <maxDepth>1</maxDepth>
    <maxWeakCount>100</maxWeakCount></stageParams>
  <featureParams>
    <maxCatCount>0</maxCatCount>
    <featSize>1</featSize>
    <mode>BASIC</mode></featureParams>
  <stageNum>9</stageNum>
  <stages>
    <!-- stage 0 -->
    <_>
      <maxWeakCount>2</maxWeakCount>
      <stageThreshold>-4.0694963932037354e-01</stageThreshold>
      <weakClassifiers>
        <_>
          <internalNodes>
            0 -1 2 -3.3114813268184662e-02</internalNodes>
          <leafValues>
            4.8235294222831726e-01 -9.2852956056594849e-01</leafValues></_>
        <_>
          <internalNodes>
            0 -1 16 -2.3918610066175461e-02</internalNodes>
          <leafValues>
            7.3066842555999756e-01 -8.8930255174636841e-01</leafValues></_></weakClassifiers></_>
    <!-- stage 1 -->
    <_>
      <maxWeakCount>2</maxWeakCount>
      <stageThreshold>-3.9495766162872314e-01</stageThreshold>
      <weakClassifiers>
        <_>
          <internalNodes>
            0 -1 14 -2.3332608863711357e-02</internalNodes>
          <leafValues>
            -9.8206812143325806e-01 6.2629759311676025e-01</leafValues></_>
        <_>
          <internalNodes>
            0 -1 0 -5.9105586260557175e-03</internalNodes>
          <leafValues>
            5.8711045980453491e-01 -8.8192975521087646e-01</leafValues></_></weakClassifiers></_>
    <!-- stage 2 -->
    <_>
      <maxWeakCount>2</maxWeakCount>
      <stageThreshold>-4.4829049706459045e-01</stageThreshold>
      <weakClassifiers>
        <_>
          <internalNodes>
            0 -1 20 -4.6056009829044342e-02</internalNodes>
          <leafValues>
            7.9661017656326294e-01 -8.4381777048110962e-01</leafValues></_>
        <_>
          <internalNodes>
            0 -1 15 1.7053155228495598e-02</internalNodes>
          <leafValues>
            -9.6926963329315186e-01 3.9552727341651917e-01</leafValues></_></weakClassifiers></_>
    <!-- stage 3 -->
    <_>
      <maxWeakCount>2</maxWeakCount>
      <stageThreshold>-8.1780773401260376e-01</stageThreshold>
      <weakClassifiers>
        <_>
          <internalNodes>
            0 -1 6 -2.3505440354347229e-01</internalNodes>
          <leafValues>
            3.0303031206130981e-02 -9.6216571331024170e-01</leafValues></_>
        <_>
          <internalNodes>
            0 -1 7 -1.3072976144030690e-03</internalNodes>
          <leafValues>
            4.6746954321861267e-01 -8.4811073541641235e-01</leafValues></_></weakClassifiers></_>
    <!-- stage 4 -->
    <_>
      <maxWeakCount>3</maxWeakCount>
      <stageThreshold>-1.2902860641479492e+00</stageThreshold>
      <weakClassifiers>
        <_>
          <internalNodes>
            0 -1 4 -1.1328002437949181e-03</internalNodes>
          <leafValues>
            -8.4481823444366455e-01 7.9831933975219727e-01</leafValues></_>
        <_>
          <internalNodes>
            0 -1 5 -1.8616175279021263e-02</internalNodes>
          <leafValues>
            -9.1694033145904541e-01 3.6286684870719910e-01</leafValues></_>
        <_>
          <internalNodes>
            0 -1 11 -3.3614137209951878e-03</internalNodes>
          <leafValues>
            4.7147247195243835e-01 -9.4838076829910278e-01</leafValues></_></weakClassifiers></_>
    <!-- stage 5 -->
    <_>
      <maxWeakCount>3</maxWeakCount>
      <stageThreshold>-1.2687287330627441e+00</stageThreshold>
      <weakClassifiers>
        <_>
          <internalNodes>
            0 -1 12 -1.1256198585033417e-01</internalNodes>
          <leafValues>
            -9.3166565895080566e-01 2.0123839378356934e-01</leafValues></_>
        <_>
          <internalNodes>
            0 -1 8 -6.5847374498844147e-03</internalNodes>
          <leafValues>
            -8.0906176567077637e-01 4.4168877601623535e-01</leafValues></_>
        <_>
          <internalNodes>
            0 -1 21 -7.5044372351840138e-04</internalNodes>
          <leafValues>
            5.2315932512283325e-01 -7.7875190973281860e-01</leafValues></_></weakClassifiers></_>
    <!-- stage 6 -->
    <_>
      <maxWeakCount>4</maxWeakCount>
      <stageThreshold>-8.1598526239395142e-01</stageThreshold>
      <weakClassifiers>
        <_>
          <internalNodes>
            0 -1 10 -3.2744400203227997e-02</internalNodes>
          <leafValues>
            8.0000001192092896e-01 -8.5480350255966187e-01</leafValues></_>
        <_>
          <internalNodes>
            0 -1 5 -1.8604572862386703e-02</internalNodes>
          <leafValues>
            -9.0568000078201294e-01 1.9390371441841125e-01</leafValues></_>
        <_>
          <internalNodes>
            0 -1 9 -1.6704026609659195e-02</internalNodes>
          <leafValues>
            3.1820604205131531e-01 -8.4633082151412964e-01</leafValues></_>
        <_>
          <internalNodes>
            0 -1 3 -7.5772736454382539e-04</internalNodes>
          <leafValues>
            -4.7329154610633850e-01 8.4545725584030151e-01</leafValues></_></weakClassifiers></_>
    <!-- stage 7 -->
    <_>
      <maxWeakCount>4</maxWeakCount>
      <stageThreshold>-1.9032033681869507e+00</stageThreshold>
      <weakClassifiers>
        <_>
          <internalNodes>
            0 -1 1 -1.6220543533563614e-02</internalNodes>
          <leafValues>
            7.4834436178207397e-01 -8.6968523263931274e-01</leafValues></_>
        <_>
          <internalNodes>
            0 -1 22 6.7399704130366445e-04</internalNodes>
          <leafValues>
            -8.4120696783065796e-01 2.1575623750686646e-01</leafValues></_>
        <_>
          <internalNodes>
            0 -1 13 -2.3312261328101158e-03</internalNodes>
          <leafValues>
            2.9783192276954651e-01 -9.0137648582458496e-01</leafValues></_>
        <_>
          <internalNodes>
            0 -1 19 -7.6204895973205566e-02</internalNodes>
          <leafValues>
            7.4930530786514282e-01 -4.9014303088188171e-01</leafValues></_></weakClassifiers></_>
    <!-- stage 8 -->
    <_>
      <maxWeakCount>4</maxWeakCount>
      <stageThreshold>-1.8709946870803833e+00</stageThreshold>
      <weakClassifiers>
        <_>
          <internalNodes>
            0 -1 24 -2.4689096957445145e-02</internalNodes>
          <leafValues>
            7.1241831779479980e-01 -8.6843562126159668e-01</leafValues></_>
        <_>
          <internalNodes>
            0 -1 23 5.2061694441363215e-04</internalNodes>
          <leafValues>
            -8.6324644088745117e-01 2.4008533358573914e-01</leafValues></_>
        <_>
          <internalNodes>
            0 -1 17 -8.3106453530490398e-04</internalNodes>
          <leafValues>
            2.4489314854145050e-01 -8.6225223541259766e-01</leafValues></_>
        <_>
          <internalNodes>
            0 -1 18 -2.2799474000930786e-01</internalNodes>
          <leafValues>
            8.0568170547485352e-01 -3.8420575857162476e-01</leafValues></_></weakClassifiers></_></stages>
  <features>
    <_>
      <rects>
        <_>
          0 3 2 7 -1.</_>
        <_>
          1 3 1 7 2.</_></rects>
      <tilted>0</tilted></_>
    <_>
      <rects>
        <_>
          2 1 1 8 -1.</_>
        <_>
          2 5 1 4 2.</_></rects>
      <tilted>0</tilted></_>
    <_>
      <rects>
        <_>
          2 1 8 8 -1.</_>
        <_>
          2 1 4 4 2.</_>
        <_>
          6 5 4 4 2.</_></rects>
      <tilted>0</tilted></_>
    <_>
      <rects>
        <_>
          2 2 1 9 -1.</_>
        <_>
          2 5 1 3 2.</_></rects>
      <tilted>0</tilted></_>
    <_>
      <rects>
        <_>
          2 8 6 1 -1.</_>
        <_>
          4 8 2 1 2.</_></rects>
      <tilted>0</tilted></_>
    <_>
      <rects>
        <_>
          2 8 6 3 -1.</_>
        <_>
          4 8 2 3 2.</_></rects>
      <tilted>0</tilted></_>
    <_>
      <rects>
        <_>
          3 0 21 16 -1.</_>
        <_>
          3 8 21 8 2.</_></rects>
      <tilted>0</tilted></_>
    <_>
      <rects>
        <_>
          3 1 1 2 -1.</_>
        <_>
          3 2 1 1 2.</_></rects>
      <tilted>0</tilted></_>
    <_>
      <rects>
        <_>
          3 2 1 9 -1.</_>
        <_>
          3 5 1 3 2.</_></rects>
      <tilted>0</tilted></_>
    <_>
      <rects>
        <_>
          3 4 6 14 -1.</_>
        <_>
          6 4 3 14 2.</_></rects>
      <tilted>0</tilted></_>
    <_>
      <rects>
        <_>
          4 1 4 6 -1.</_>
        <_>
          4 1 2 3 2.</_>
        <_>
          6 4 2 3 2.</_></rects>
      <tilted>0</tilted></_>
    <_>
      <rects>
        <_>
          6 12 6 6 -1.</_>
        <_>
          6 12 3 3 2.</_>
        <_>
          9 15 3 3 2.</_></rects>
      <tilted>0</tilted></_>
    <_>
      <rects>
        <_>
          7 9 12 9 -1.</_>
        <_>
          7 12 12 3 2.</_></rects>
      <tilted>0</tilted></_>
    <_>
      <rects>
        <_>
          8 7 2 10 -1.</_>
        <_>
          8 12 2 5 2.</_></rects>
      <tilted>0</tilted></_>
    <_>
      <rects>
        <_>
          8 13 9 3 -1.</_>
        <_>
          11 13 3 3 2.</_></rects>
      <tilted>0</tilted></_>
    <_>
      <rects>
        <_>
          9 5 4 19 -1.</_>
        <_>
          11 5 2 19 2.</_></rects>
      <tilted>0</tilted></_>
    <_>
      <rects>
        <_>
          13 2 4 22 -1.</_>
        <_>
          13 2 2 11 2.</_>
        <_>
          15 13 2 11 2.</_></rects>
      <tilted>0</tilted></_>
    <_>
      <rects>
        <_>
          15 16 2 8 -1.</_>
        <_>
          16 16 1 8 2.</_></rects>
      <tilted>0</tilted></_>
    <_>
      <rects>
        <_>
          16 6 8 18 -1.</_>
        <_>
          16 15 8 9 2.</_></rects>
      <tilted>0</tilted></_>
    <_>
      <rects>
        <_>
          16 9 6 12 -1.</_>
        <_>
          16 15 6 6 2.</_></rects>
      <tilted>0</tilted></_>
    <_>
      <rects>
        <_>
          16 16 6 8 -1.</_>
        <_>
          16 16 3 4 2.</_>
        <_>
          19 20 3 4 2.</_></rects>
      <tilted>0</tilted></_>
    <_>
      <rects>
        <_>
          18 20 2 3 -1.</_>
        <_>
          19 20 1 3 2.</_></rects>
      <tilted>0</tilted></_>
    <_>
      <rects>
        <_>
          18 22 4 2 -1.</_>
        <_>
          18 23 4 1 2.</_></rects>
      <tilted>0</tilted></_>
    <_>
      <rects>
        <_>
          19 22 3 2 -1.</_>
        <_>
          19 23 3 1 2.</_></rects>
      <tilted>0</tilted></_>
    <_>
      <rects>
        <_>
          21 18 3 6 -1.</_>
        <_>
          21 21 3 3 2.</_></rects>
      <tilted>0</tilted></_></features></cascade>
</opencv_storage>
