<?xml version="1.0"?>
<opencv_storage>
<cascade>
  <stageType>BOOST</stageType>
  <featureType>HAAR</featureType>
  <height>24</height>
  <width>24</width>
  <stageParams>
    <boostType>GAB</boostType>
    <minHitRate>9.7500002384185791e-01</minHitRate>
    <maxFalseAlarm>5.0000000000000000e-01</maxFalseAlarm>
    <weightTrimRate>9.4999999999999996e-01</weightTrimRate>
    <maxDepth>1</maxDepth>
    <maxWeakCount>100</maxWeakCount></stageParams>
  <featureParams>
    <maxCatCount>0</maxCatCount>
    <featSize>1</featSize>
    <mode>BASIC</mode></featureParams>
  <stageNum>5</stageNum>
  <stages>
    <!-- stage 0 -->
    <_>
      <maxWeakCount>2</maxWeakCount>
      <stageThreshold>-2.7345284819602966e-01</stageThreshold>
      <weakClassifiers>
        <_>
          <internalNodes>
            0 -1 7 -1.1043901741504669e-01</internalNodes>
          <leafValues>
            9.0243899822235107e-01 -9.9919486045837402e-01</leafValues></_>
        <_>
          <internalNodes>
            0 -1 8 -1.0539667308330536e-01</internalNodes>
          <leafValues>
            7.2574198246002197e-01 -1.</leafValues></_></weakClassifiers></_>
    <!-- stage 1 -->
    <_>
      <maxWeakCount>2</maxWeakCount>
      <stageThreshold>-8.1219768524169922e-01</stageThreshold>
      <weakClassifiers>
        <_>
          <internalNodes>
            0 -1 3 -4.4809328392148018e-03</internalNodes>
          <leafValues>
            -9.9919092655181885e-01 4.7169810533523560e-01</leafValues></_>
        <_>
          <internalNodes>
            0 -1 2 4.2121000587940216e-03</internalNodes>
          <leafValues>
            -9.9727469682693481e-01 1.8699324131011963e-01</leafValues></_></weakClassifiers></_>
    <!-- stage 2 -->
    <_>
      <maxWeakCount>2</maxWeakCount>
      <stageThreshold>-9.1441398859024048e-01</stageThreshold>
      <weakClassifiers>
        <_>
          <internalNodes>
            0 -1 4 -2.9200270771980286e-02</internalNodes>
          <leafValues>
            6.9767445325851440e-02 -9.8630136251449585e-01</leafValues></_>
        <_>
          <internalNodes>
            0 -1 5 -1.7992552369832993e-02</internalNodes>
          <leafValues>
            -1. 7.1887403726577759e-02</leafValues></_></weakClassifiers></_>
    <!-- stage 3 -->
    <_>
      <maxWeakCount>2</maxWeakCount>
      <stageThreshold>-7.8349107503890991e-01</stageThreshold>
      <weakClassifiers>
        <_>
          <internalNodes>
            0 -1 9 -1.8060205038636923e-03</internalNodes>
          <leafValues>
            -5.2631579339504242e-02 -9.9673336744308472e-01</leafValues></_>
        <_>
          <internalNodes>
            0 -1 1 -4.0907800197601318e-02</internalNodes>
          <leafValues>
            2.1324226260185242e-01 -1.</leafValues></_></weakClassifiers></_>
    <!-- stage 4 -->
    <_>
      <maxWeakCount>2</maxWeakCount>
      <stageThreshold>-1.2650781869888306e+00</stageThreshold>
      <weakClassifiers>
        <_>
          <internalNodes>
            0 -1 0 3.8263881206512451e-01</internalNodes>
          <leafValues>
            -9.9588310718536377e-01 -2.7083334326744080e-01</leafValues></_>
        <_>
          <internalNodes>
            0 -1 6 -2.1072439849376678e-02</internalNodes>
          <leafValues>
            2.6024392247200012e-01 -9.9424487352371216e-01</leafValues></_></weakClassifiers></_></stages>
  <features>
    <_>
      <rects>
        <_>
          2 0 22 14 -1.</_>
        <_>
          13 0 11 14 2.</_></rects>
      <tilted>0</tilted></_>
    <_>
      <rects>
        <_>
          2 5 5 10 -1.</_>
        <_>
          2 10 5 5 2.</_></rects>
      <tilted>0</tilted></_>
    <_>
      <rects>
        <_>
          10 13 2 6 -1.</_>
        <_>
          11 13 1 6 2.</_></rects>
      <tilted>0</tilted></_>
    <_>
      <rects>
        <_>
          11 8 1 12 -1.</_>
        <_>
          11 12 1 4 2.</_></rects>
      <tilted>0</tilted></_>
    <_>
      <rects>
        <_>
          13 5 7 4 -1.</_>
        <_>
          13 7 7 2 2.</_></rects>
      <tilted>0</tilted></_>
    <_>
      <rects>
        <_>
          14 13 9 2 -1.</_>
        <_>
          17 13 3 2 2.</_></rects>
      <tilted>0</tilted></_>
    <_>
      <rects>
        <_>
          17 0 3 10 -1.</_>
        <_>
          17 5 3 5 2.</_></rects>
      <tilted>0</tilted></_>
    <_>
      <rects>
        <_>
          18 0 2 24 -1.</_>
        <_>
          18 12 2 12 2.</_></rects>
      <tilted>0</tilted></_>
    <_>
      <rects>
        <_>
          18 5 3 18 -1.</_>
        <_>
          18 14 3 9 2.</_></rects>
      <tilted>0</tilted></_>
    <_>
      <rects>
        <_>
          18 18 2 4 -1.</_>
        <_>
          18 18 1 2 2.</_>
        <_>
          19 20 1 2 2.</_></rects>
      <tilted>0</tilted></_></features></cascade>
</opencv_storage>